/*!
* The following copyright notice may not be removed under any circumstances.
* 
* Copyright:
* Generated in 2009 by FontLab Studio. Copyright info pending.
* 
* Full name:
* junctionregular
*/
Cufon.registerFont({ "w": 631, "face": { "font-family": "junction regular", "font-weight": 400, "font-stretch": "normal", "units-per-em": "1000", "panose-1": "0 0 0 0 0 0 0 0 0 0", "ascent": "750", "descent": "-250", "x-height": "12", "bbox": "-35 -841 1012 275", "underline-thickness": "50", "underline-position": "-50", "unicode-range": "U+0020-U+201D" }, "glyphs": { " ": { "w": 260 }, "b": { "d": "373,-562v122,1,198,133,198,278v0,187,-88,296,-231,296v-50,0,-115,-31,-171,-76r0,64r-84,0r0,-820r84,0r0,376v45,-58,114,-119,204,-118xm373,-480v-104,-1,-172,80,-204,130r0,194v49,49,119,86,171,86v89,0,147,-79,147,-214v0,-101,-44,-195,-114,-196", "k": { "a": 10, "u": 10} }, "c": { "d": "291,-562v113,4,169,88,169,88r-53,50v0,0,-33,-55,-118,-58v-69,-2,-150,67,-150,217v0,110,57,197,145,197v39,0,75,-1,134,-57r52,50v-85,86,-135,87,-186,87v-138,0,-229,-121,-229,-277v0,-207,129,-301,236,-297", "w": 510, "k": { "o": 10} }, "d": { "d": "258,12v-122,-1,-198,-133,-198,-278v0,-187,88,-296,231,-296v49,0,115,31,171,76r0,-334r84,0r0,688v0,0,7,67,65,96r-69,48v-61,-33,-76,-87,-80,-118v-45,58,-115,119,-204,118xm258,-70v104,2,172,-79,204,-130r0,-194v-50,-48,-119,-86,-171,-86v-89,0,-147,79,-147,214v0,101,44,195,114,196", "w": 651, "k": { "z": -15} }, "e": { "d": "55,-269v0,-152,98,-293,237,-293v205,0,225,207,225,246r0,37r-378,0v0,121,55,217,157,217v29,0,94,5,170,-95r51,49v-100,124,-180,120,-221,120v-154,0,-241,-130,-241,-281xm292,-488v-67,0,-119,58,-141,135r278,0v-11,-51,-43,-135,-137,-135", "w": 580 }, "f": { "d": "256,-755v-100,-1,-65,116,-72,205r162,0r0,70r-162,0r0,480r-83,0r0,-480r-71,0r0,-70r71,0v-6,-149,3,-276,155,-275v74,0,131,25,177,63r-54,52v-36,-28,-76,-45,-123,-45", "w": 403, "k": { "a": 55, "u": 22, "t": 20, "s": 40, "q": 60, "o": 50, "i": 20, "g": 25, "f": 20, "e": 70, "d": 60, "c": 60} }, "g": { "d": "165,-388v0,111,81,127,131,127v50,0,131,-22,131,-127v0,-82,-81,-112,-131,-112v-50,0,-131,30,-131,112xm93,-122v0,-35,31,-72,71,-104v-46,-26,-83,-74,-83,-162v0,-128,133,-176,215,-176v20,0,43,3,67,9v57,-49,130,-74,211,-49r-14,70v-39,-12,-92,-5,-127,10v44,28,78,72,78,136v0,159,-133,191,-215,191v-18,0,-39,-1,-60,-5v-32,23,-59,52,-59,80v7,7,97,7,120,8v131,7,281,31,281,164v0,121,-85,225,-278,225v-126,0,-240,-71,-240,-167v0,-88,36,-130,84,-165v-28,-12,-51,-32,-51,-65xm300,200v135,0,198,-69,198,-150v0,-91,-162,-89,-274,-91v-47,29,-79,57,-79,149v0,54,73,92,155,92", "w": 616, "k": { "a": 25, "o": 22, "d": 10} }, "h": { "d": "169,0r-84,0r0,-820r84,0r0,386v61,-59,150,-128,240,-128v91,0,127,65,127,171r0,391r-84,0r0,-391v0,-54,-12,-87,-43,-87v-104,0,-194,83,-240,131r0,347", "w": 606 }, "i": { "d": "94,-550r83,0r0,550r-83,0r0,-550xm85,-720v0,-29,22,-50,51,-50v29,0,50,21,50,50v0,29,-21,51,-50,51v-29,0,-51,-22,-51,-51", "w": 271 }, "j": { "d": "35,-720v0,-29,22,-50,51,-50v29,0,50,21,50,50v0,29,-21,51,-50,51v-29,0,-51,-22,-51,-51xm44,-550r83,0r0,593v0,126,-76,211,-137,232r-25,-79v39,-5,79,-74,79,-153r0,-593", "w": 221 }, "k": { "d": "570,0r-113,0v-27,-9,-155,-168,-216,-233v-26,-28,-36,-41,-72,-35r0,268r-84,0r0,-820r84,0r0,464v10,-7,183,-123,219,-194r85,0v-15,57,-143,160,-228,224v18,7,38,19,56,39v66,77,252,287,269,287", "w": 565, "k": { "s": 25, "e": 10} }, "l": { "d": "85,-820r83,0r0,674v0,23,0,54,11,65v13,13,38,22,66,22r-3,71v-31,0,-91,-3,-122,-34v-35,-35,-35,-87,-35,-124r0,-674", "w": 280 }, "m": { "d": "169,0r-84,0r0,-550r84,0r0,109v52,-57,121,-121,208,-121v76,0,114,46,124,124v52,-58,123,-124,211,-124v91,0,127,65,127,171r0,391r-84,0r0,-391v0,-54,-12,-87,-43,-87v-102,0,-168,81,-208,129r0,349r-84,0r0,-391v0,-54,-12,-87,-43,-87v-102,0,-168,81,-208,129r0,349", "w": 919 }, "n": { "d": "169,0r-84,0r0,-550r84,0r0,116v61,-59,150,-128,240,-128v91,0,127,65,127,171r0,391r-84,0r0,-391v0,-54,-12,-87,-43,-87v-100,0,-187,77,-240,131r0,347", "w": 616 }, "o": { "d": "60,-275v0,-225,119,-287,239,-287v120,0,239,62,239,287v0,225,-119,287,-239,287v-120,0,-239,-62,-239,-287xm454,-275v0,-169,-79,-217,-155,-217v-76,0,-155,48,-155,217v0,169,79,217,155,217v76,0,155,-48,155,-217", "w": 598, "k": { "y": 15, "x": 25, "o": 10, "d": 10} }, "p": { "d": "169,260r-84,0r0,-810r84,0r0,106v45,-58,114,-119,204,-118v122,1,198,133,198,278v0,187,-88,296,-231,296v-50,0,-115,-31,-171,-76r0,324xm373,-480v-104,-1,-172,80,-204,130r0,194v49,49,119,86,171,86v89,0,147,-79,147,-214v0,-101,-44,-195,-114,-196" }, "q": { "d": "258,12v-122,-1,-198,-133,-198,-278v0,-187,88,-296,231,-296v49,0,115,31,171,76r0,-64r84,0r0,810r-84,0r0,-365v-46,57,-115,118,-204,117xm258,-70v104,2,172,-79,204,-130r0,-194v-50,-48,-119,-86,-171,-86v-89,0,-147,79,-147,214v0,101,44,195,114,196" }, "r": { "d": "85,-550r84,0r0,106v35,-60,83,-118,139,-118v86,0,133,55,133,55r-58,56v0,0,-24,-31,-71,-31v-64,0,-114,77,-143,138r0,344r-84,0r0,-550", "w": 459, "k": { "a": 10, "'": -10, "-": 30, "y": 15, "s": 10, "o": 30, "i": 15, "g": 15, "d": 30, "c": 12} }, "s": { "d": "157,-405v0,47,56,64,114,82v89,27,180,54,180,172v0,111,-94,163,-191,163v-81,0,-168,-37,-215,-112r58,-47v30,55,95,88,159,89v55,0,109,-30,109,-93v0,-57,-65,-78,-124,-96v-84,-25,-170,-55,-170,-158v0,-134,119,-157,172,-157v72,0,134,25,173,64r-54,52v-26,-28,-70,-46,-119,-46v-29,0,-92,13,-92,87", "w": 501, "k": { "a": 5, "t": 10, "e": 15} }, "t": { "d": "45,-480r0,-70r70,0r0,-150r84,0r0,150r132,0r0,70r-132,0r0,320v0,37,0,102,52,102v33,0,62,-14,87,-38r47,45v-41,39,-93,63,-156,63v-84,0,-114,-68,-114,-172r0,-320r-70,0", "w": 400 }, "u": { "d": "207,-72v99,0,187,-76,240,-131r0,-347r84,0r0,550r-84,0r0,-115v-62,59,-151,127,-240,127v-91,0,-127,-65,-127,-171r0,-391r84,0r0,391v0,54,12,87,43,87", "w": 616 }, "v": { "d": "35,-550r97,0r143,425r3,19v34,-137,128,-419,155,-444r91,0v-39,47,-206,550,-206,550r-73,0", "w": 559 }, "w": { "d": "273,0r-79,0r-159,-550r91,0r109,410r3,21v34,-150,82,-286,120,-431r72,0r121,431v32,-152,111,-419,129,-431r82,0v-27,27,-174,550,-174,550r-71,0r-123,-424", "w": 797 }, "x": { "d": "60,-550r106,0r136,199v47,-70,135,-195,148,-199r104,0v-21,10,-157,200,-205,268r200,282r-106,0r-142,-212v-45,65,-143,208,-157,212r-104,0v22,-10,179,-230,214,-281", "w": 594, "k": { "t": 10, "f": 15} }, "y": { "d": "50,-550r89,0r149,386v69,-169,153,-370,172,-386r95,0v-28,27,-43,54,-261,589v-25,62,-51,126,-102,175v-54,52,-107,59,-142,61r-21,-73v61,-4,85,-22,106,-43v27,-12,80,-139,107,-209", "w": 550, "k": { "a": 10} }, "z": { "d": "478,-88r0,71v-13,15,-72,17,-72,17r-356,0r0,-71r310,-409r-310,0r0,-70r411,0r0,70r-310,409r256,0v0,0,55,0,71,-17", "w": 518, "k": { "o": 25} }, ".": { "d": "45,-49v0,-32,24,-55,56,-55v32,0,55,23,55,55v0,32,-23,56,-55,56v-32,0,-56,-24,-56,-56", "w": 201 }, ",": { "d": "40,-49v0,-32,24,-55,56,-55v43,0,61,42,61,82v-1,55,-32,110,-74,162r-42,-14v29,-36,52,-75,59,-119v-36,0,-60,-24,-60,-56", "w": 202 }, ":": { "d": "70,-49v0,-32,24,-55,56,-55v32,0,55,23,55,55v0,32,-23,56,-55,56v-32,0,-56,-24,-56,-56xm70,-415v0,-32,24,-55,56,-55v32,0,55,23,55,55v0,32,-23,56,-55,56v-32,0,-56,-24,-56,-56", "w": 251 }, ";": { "d": "70,-49v0,-32,24,-55,56,-55v43,0,61,42,61,82v-1,55,-32,110,-74,162r-42,-14v29,-36,52,-75,59,-119v-36,0,-60,-24,-60,-56xm70,-415v0,-32,24,-55,56,-55v32,0,55,23,55,55v0,32,-23,56,-55,56v-32,0,-56,-24,-56,-56", "w": 257 }, "?": { "d": "158,-294v0,-134,225,-211,226,-346v0,-40,-11,-110,-124,-110v-103,0,-166,120,-166,120r-53,-50v0,0,79,-140,219,-140v179,0,208,114,208,180v0,108,-82,180,-153,243v-78,69,-116,115,-34,188r-51,44v-42,-38,-72,-67,-72,-129xm195,-49v0,-32,24,-55,56,-55v32,0,55,23,55,55v0,32,-23,56,-55,56v-32,0,-56,-24,-56,-56", "w": 504 }, "\u2013": { "d": "581,-308r0,65r-551,0r0,-65r551,0", "w": 641 }, "-": { "d": "291,-310r0,70r-236,0r0,-70r236,0", "w": 346 }, "Z": { "d": "564,-101r0,85v-21,17,-118,16,-118,16r-395,0r0,-82r385,-606r-375,0r0,-82r482,0r0,80r-385,608r290,0v0,0,94,3,116,-19", "w": 614 }, "D": { "d": "173,0r-88,0r0,-770r88,0r0,85v46,-43,122,-95,227,-95v137,0,274,106,274,400v0,223,-132,392,-304,392v-61,0,-126,-23,-197,-69r0,57xm586,-380v0,-221,-95,-314,-183,-314v-118,0,-193,57,-230,95r0,462v64,42,130,63,197,63v122,0,216,-128,216,-306", "w": 734 }, "A": { "d": "314,-770r92,0r284,770r-93,0r-97,-262r-281,0r-96,262r-93,0xm360,-644r-113,306r225,0", "w": 720, "k": { "v": 18} }, "B": { "d": "173,0r-88,0r0,-770r88,0r0,56v70,-46,111,-67,173,-67v95,0,197,58,197,223v0,81,-33,129,-78,158v96,44,113,125,113,163v0,58,9,249,-260,249v-41,0,-97,-23,-145,-57r0,45xm173,-356r0,241v40,25,89,45,145,45v183,0,176,-127,176,-167v0,-30,-22,-121,-168,-121v-29,0,-56,2,-153,2xm459,-560v0,-194,-175,-152,-286,-81r0,213v144,0,286,2,286,-132", "w": 639 }, "G": { "d": "659,-391r0,239v0,91,-121,164,-238,164v-272,0,-361,-226,-361,-385v0,-312,210,-407,356,-407v156,0,240,118,240,118r-61,59v0,0,-58,-97,-175,-97v-108,0,-269,80,-269,327v0,122,68,297,266,299v59,0,164,-41,164,-82r0,-149v-72,-4,-122,12,-184,-15r0,-80v92,18,164,5,262,9", "w": 745 }, "_": { "d": "606,0r0,64r-551,0r0,-64r551,0", "w": 661 }, "C": { "d": "610,-675r-61,59v0,0,-45,-80,-172,-80v-110,0,-227,103,-227,329v0,168,98,295,220,295v138,0,217,-86,218,-86r54,52v-9,11,-80,118,-270,118v-179,0,-312,-163,-312,-379v0,-277,172,-413,318,-413v159,0,232,105,232,105", "w": 663 }, "^": { "d": "291,-550r72,0r251,550r-72,0r-215,-471r-215,471r-72,0", "w": 654 }, "E": { "d": "522,0r-437,0r0,-770r318,0v65,0,105,-5,105,-5r0,91r-335,0r0,248r285,0r0,76r-285,0r0,274r244,0v65,0,105,-5,105,-5r0,91", "w": 562 }, "F": { "d": "173,0r-88,0r0,-770r318,0v65,0,105,-5,105,-5r0,91r-335,0r0,248r285,0r0,76r-285,0r0,360", "w": 543 }, "H": { "d": "173,0r-88,0r0,-770r88,0r0,334r396,0r0,-334r88,0r0,770r-88,0r0,-360r-396,0r0,360", "w": 742 }, "I": { "d": "173,0r-88,0r0,-770r88,0r0,770", "w": 258 }, "J": { "d": "114,-770r88,0r0,787v0,161,-112,220,-180,242r-32,-79v61,-17,124,-64,124,-163r0,-787", "w": 286 }, "O": { "d": "381,-780v158,0,318,89,318,392v0,308,-161,395,-320,395v-158,0,-319,-86,-319,-393v0,-307,162,-394,321,-394xm381,-698v-115,0,-233,69,-233,310v0,244,117,313,231,313v114,0,231,-68,232,-311v0,-240,-116,-312,-230,-312", "w": 759 }, "K": { "d": "85,-770r88,0r0,347r264,-347r111,0r-288,360v26,3,78,26,106,56v40,43,199,310,232,354r-107,0v-34,-36,-152,-250,-185,-289v-24,-28,-80,-54,-133,-41r0,330r-88,0r0,-770", "w": 618 }, "L": { "d": "85,0r0,-770r88,0r0,684r274,0v65,0,105,-5,105,-5r0,91r-467,0", "w": 587, "k": { "o": 10} }, "M": { "d": "173,0r-88,0r0,-770r88,0r252,667r253,-667r88,0r0,770r-88,0r1,-555r-211,555r-85,0r-211,-555", "w": 851 }, "N": { "d": "173,0r-88,0r0,-770r88,1r379,619r-1,-620r88,0r0,770r-88,-1r-379,-621", "w": 724 }, "T": { "d": "10,-694r0,-76r542,0r0,76r-229,0r0,694r-88,0r0,-694r-225,0", "w": 562 }, "Q": { "d": "699,-381v0,281,-136,377,-280,391v26,42,138,50,207,24r24,79v-27,12,-88,19,-118,19v-134,0,-185,-80,-202,-123v-141,-17,-270,-115,-270,-390v0,-307,162,-399,321,-399v158,0,318,95,318,399xm381,-698v-115,0,-233,74,-233,315v0,244,117,313,231,313v114,0,231,-68,232,-311v0,-240,-116,-317,-230,-317", "w": 759 }, "P": { "d": "173,0r-88,0r0,-770r88,0r0,60v48,-36,103,-70,178,-70v91,0,217,86,217,242v0,192,-105,307,-238,307v-68,0,-116,-24,-157,-52r0,283xm484,-538v0,-103,-78,-160,-133,-160v-67,0,-110,19,-178,62r0,265v45,35,101,64,161,64v85,0,150,-88,150,-231", "w": 618 }, "R": { "d": "173,0r-88,0r0,-770r88,0r0,56v61,-39,109,-66,174,-66v92,0,206,56,206,219v0,157,-86,218,-172,236v82,71,190,271,263,323r0,2r-109,0v-81,-58,-189,-318,-284,-318v-28,0,-55,0,-78,-1r0,319xm173,-390v166,-2,296,32,296,-171v0,-186,-188,-152,-296,-81r0,252", "w": 659 }, "S": { "d": "57,-137r61,-58v52,84,139,126,232,126v86,0,170,-46,170,-142v0,-94,-94,-119,-186,-147v-117,-36,-232,-72,-232,-210v0,-181,159,-213,230,-213v98,0,187,36,240,93r-62,54v-39,-41,-104,-67,-178,-67v-45,0,-146,20,-146,133v0,76,86,100,172,126v117,36,246,81,246,231v0,150,-126,222,-256,222v-121,0,-225,-52,-291,-148", "w": 665 }, "U": { "d": "628,-239v-1,228,-187,251,-271,251v-85,0,-272,-23,-272,-251r0,-531r88,0r0,529v0,160,127,176,184,176v56,0,183,-16,183,-174r0,-531r88,0r0,531", "w": 713 }, "{": { "d": "284,-830v66,0,116,33,116,33r-28,70v0,0,-28,-19,-88,-19v-20,0,-24,45,-24,68r0,299v0,3,-3,62,-64,97v63,35,64,93,64,97r0,299v0,23,4,68,24,68v60,0,88,-19,88,-19r28,70v0,0,-50,33,-116,33v-92,0,-108,-101,-108,-152r0,-298v0,0,0,-73,-96,-73r0,-50v97,0,96,-73,96,-73r0,-298v0,-51,16,-152,108,-152", "w": 470 }, "V": { "d": "396,0r-92,0r-274,-770r93,0r227,646r227,-646r93,0", "w": 700, "k": { "a": 15} }, "W": { "d": "321,0r-73,0r-218,-770r92,0r162,632r162,-632r93,0r162,632r162,-632r93,0r-218,770r-73,0r-170,-594r-3,-18r-3,18", "w": 986, "k": { "a": 15, "o": 15, "e": 20} }, "X": { "d": "520,-770r107,0r-245,386r245,384r-108,0r-191,-299r-190,299r-108,0r244,-384r-244,-386r107,0r191,301", "w": 657 }, "Y": { "d": "505,-770r102,0r-254,401r0,369r-87,0r0,-369r-256,-401r106,0r194,306", "w": 617 }, "0": { "d": "60,-283v0,-225,128,-294,246,-294v118,0,246,69,246,294v0,225,-128,294,-246,294v-118,0,-246,-69,-246,-294xm468,-283v0,-169,-84,-220,-162,-220v-78,0,-162,51,-162,220v0,169,84,220,162,220v78,0,162,-51,162,-220", "w": 612 }, "1": { "d": "274,0r-81,0r0,-480r-89,75r-54,-52r143,-108r81,0r0,565", "w": 357, "k": { "7": -15} }, "2": { "d": "119,-407v0,0,-51,-48,-51,-49v19,-34,95,-121,198,-121v115,0,186,59,186,177v0,102,-157,245,-264,327r306,0r1,73r-445,0r0,-64v0,0,317,-215,317,-330v0,-74,-43,-104,-102,-103v-94,1,-146,90,-146,90", "w": 550 }, "3": { "d": "110,-426r-47,-46v0,0,53,-105,176,-105v92,0,170,65,170,162v0,61,-42,108,-89,143v96,12,179,87,179,191v0,203,-171,296,-290,296v-97,0,-169,-62,-169,-62r53,-52v0,0,41,33,116,33v83,0,205,-64,205,-215v0,-63,-55,-121,-121,-121v-72,0,-140,27,-141,26r0,-70v91,-37,175,-86,175,-169v0,-49,-41,-81,-87,-81v-92,0,-130,70,-130,70", "w": 558, "k": { "1": 10} }, "4": { "d": "598,-73r0,73r-113,0r0,215r-81,0r0,-215r-364,0r0,-44r392,-521r53,0r0,492r113,0xm150,-70v73,-6,172,-2,254,-3r0,-336r-240,325", "w": 628 }, "5": { "d": "168,-489r0,202v29,-13,71,-26,132,-26v119,0,226,112,226,230v0,202,-168,298,-287,298v-114,0,-169,-68,-169,-68r52,-51v0,0,35,38,117,38v83,0,201,-65,201,-217v0,-70,-59,-157,-140,-157v-49,0,-89,8,-132,37r-81,0r0,-362r376,0r0,76r-295,0", "w": 590 }, "6": { "d": "347,-474v113,0,213,59,213,227v0,94,-57,254,-237,254v-165,0,-259,-128,-259,-362v0,-231,122,-430,290,-430v88,0,159,54,174,66r-54,52v0,0,-49,-41,-117,-41v-157,0,-209,230,-212,365v67,-102,141,-131,202,-131xm323,-67v116,0,153,-114,153,-180v0,-114,-60,-153,-129,-153v-57,0,-129,35,-191,165v23,109,81,168,167,168", "w": 620 }, "7": { "d": "44,-485r0,-80r443,0r0,59v-80,169,-343,685,-426,721r-56,-55v62,-38,283,-448,379,-645r-340,0", "w": 517 }, "9": { "d": "273,-96v-113,0,-213,-59,-213,-227v0,-94,57,-254,237,-254v165,0,259,128,259,362v0,168,-85,430,-294,430v-87,0,-160,-41,-182,-56r55,-53v9,5,56,32,126,32v159,0,210,-227,214,-364v-68,101,-141,130,-202,130xm273,-170v56,0,128,-35,191,-164v-23,-110,-81,-169,-167,-169v-116,0,-153,114,-153,180v0,114,60,153,129,153", "w": 620 }, "8": { "d": "509,-615v0,106,-99,181,-156,215v90,67,176,135,176,229v0,191,-219,182,-232,182v-13,0,-232,6,-232,-182v0,-105,92,-186,157,-230v-74,-59,-137,-127,-137,-214v0,-126,112,-166,212,-166v100,0,212,40,212,166xm444,-171v0,-62,-78,-123,-166,-187v-56,36,-128,97,-128,187v0,116,138,112,147,112v9,0,147,5,147,-112xm295,-443v38,-20,129,-80,129,-172v0,-78,-67,-102,-127,-102v-60,0,-127,24,-127,102v0,64,58,120,125,172", "w": 594 }, "&": { "d": "60,-200v0,-106,82,-169,177,-222v-61,-67,-103,-124,-103,-184v0,-125,112,-164,212,-164v100,0,208,39,208,164v0,87,-92,142,-194,194r184,197v33,-52,59,-112,89,-172r62,38v-33,66,-63,132,-98,189v52,51,93,87,103,85v27,0,46,1,71,-56r54,32v-46,105,-81,104,-125,104v-26,0,-83,-40,-149,-101v-54,62,-127,103,-240,103v-68,0,-251,-56,-251,-207xm284,-373v-76,42,-140,93,-140,173v0,89,121,123,167,123v83,-1,140,-30,184,-74xm470,-606v0,-79,-64,-104,-124,-104v-60,0,-128,25,-128,104v0,36,39,85,95,144v81,-41,157,-84,157,-144", "w": 880 }, "`": { "d": "55,-699r21,-71r225,112r-21,47", "w": 356 }, "$": { "d": "57,-137r61,-58v44,71,112,111,189,123r0,-296v-107,-34,-205,-73,-205,-200v0,-162,127,-205,205,-212r0,-61r64,0r0,62v82,8,155,42,201,91r-62,54v-32,-33,-82,-57,-139,-64r0,262v113,36,233,81,233,225v0,141,-112,213,-233,221r0,58r-64,0r0,-60v-104,-12,-192,-60,-250,-145xm520,-211v0,-81,-71,-112,-149,-137r0,278v78,-7,149,-53,149,-141xm186,-568v0,61,55,90,121,112r0,-243v-50,7,-121,36,-121,131", "w": 655 }, "}": { "d": "186,-746v-60,0,-88,19,-88,19r-28,-70v0,0,50,-33,116,-33v92,0,108,101,108,152r0,298v0,0,-1,73,96,73r0,50v-93,0,-96,67,-96,72r0,299v0,51,-16,152,-108,152v-66,0,-116,-33,-116,-33r28,-70v0,0,28,19,88,19v20,0,24,-45,24,-68r0,-298v0,0,1,-62,63,-98v-62,-35,-63,-93,-63,-97r0,-299v0,-23,-4,-68,-24,-68", "w": 470 }, "|": { "d": "161,260r-76,0r0,-1090r76,0r0,1090", "w": 246 }, "@": { "d": "426,-19v-96,-1,-135,-76,-135,-187v0,-220,165,-373,276,-373v50,0,101,12,145,80v8,-36,14,-59,14,-59r78,18v0,0,-102,453,-102,458v9,9,230,-38,230,-266v0,-162,-134,-342,-373,-342v-221,0,-419,209,-419,429v0,220,198,378,419,378v103,0,180,-10,324,-129r50,62v-164,135,-253,147,-374,147v-265,0,-499,-194,-499,-458v0,-264,234,-509,499,-509v291,0,453,218,453,422v0,272,-248,329,-323,329v-59,0,-73,-37,-62,-89v-52,46,-122,90,-201,89xm371,-206v0,76,15,126,55,127v110,3,210,-133,229,-160r37,-168v-40,-97,-83,-112,-125,-112v-79,0,-196,129,-196,313", "w": 1072 }, "\/": { "d": "329,-770r83,0r-309,1030r-83,0", "w": 432 }, "!": { "d": "174,-184r-66,0r-13,-636r92,0xm85,-49v0,-32,24,-55,56,-55v32,0,55,23,55,55v0,32,-23,56,-55,56v-32,0,-56,-24,-56,-56", "w": 281 }, "(": { "d": "302,-770r6,70v-133,47,-164,321,-164,446v0,124,31,399,164,445r-6,70v-192,-20,-242,-370,-242,-515v0,-144,51,-500,242,-516", "w": 338 }, "\\": { "d": "25,-770r83,0r309,1030r-83,0", "w": 442 }, ")": { "d": "30,-700r6,-70v191,16,242,372,242,516v0,145,-50,495,-242,515r-6,-70v133,-46,164,-321,164,-445v0,-125,-31,-399,-164,-446", "w": 338 }, "\"": { "d": "45,-715v0,-32,24,-55,56,-55v43,0,61,42,61,82v-1,55,-32,110,-74,162r-42,-14v29,-36,52,-75,59,-119v-36,0,-60,-24,-60,-56xm216,-715v0,-32,24,-55,56,-55v42,0,61,42,61,82v-1,55,-32,110,-74,162r-42,-14v29,-36,52,-75,59,-119v-36,0,-60,-24,-60,-56", "w": 378 }, "\u201c": { "d": "333,-581v0,32,-24,55,-56,55v-43,0,-61,-42,-61,-82v1,-55,32,-110,74,-162r42,14v-29,36,-52,75,-60,119v37,0,61,24,61,56xm162,-581v0,32,-24,55,-56,55v-43,0,-61,-42,-61,-82v1,-55,32,-110,74,-162r42,14v-29,36,-52,75,-60,119v37,0,61,24,61,56", "w": 378 }, "\u201d": { "d": "45,-715v0,-32,24,-55,56,-55v43,0,61,42,61,82v-1,55,-32,110,-74,162r-42,-14v29,-36,52,-75,59,-119v-36,0,-60,-24,-60,-56xm216,-715v0,-32,24,-55,56,-55v42,0,61,42,61,82v-1,55,-32,110,-74,162r-42,-14v29,-36,52,-75,59,-119v-36,0,-60,-24,-60,-56", "w": 378 }, "~": { "d": "459,-261v-78,0,-178,-61,-253,-61v-86,0,-116,24,-116,24r-30,-48v0,0,46,-36,146,-36v75,0,174,61,253,61v78,0,114,-23,114,-23r26,50v0,0,-52,33,-140,33", "w": 659 }, "'": { "d": "45,-715v0,-32,24,-55,56,-55v43,0,61,42,61,82v-1,55,-32,110,-74,162r-42,-14v29,-36,52,-75,59,-119v-36,0,-60,-24,-60,-56", "w": 207, "k": { "s": 35} }, "+": { "d": "353,0r-67,0r0,-242r-236,0r0,-67r236,0r0,-241r67,0r0,241r247,0r0,67r-247,0r0,242", "w": 650 }, "]": { "d": "70,260r0,-60r120,0r0,-910r-120,0r0,-60r204,0r0,1030r-204,0", "w": 359 }, "%": { "d": "570,-203v1,-163,102,-210,189,-210v89,0,190,46,190,212v0,162,-102,208,-189,208v-87,0,-190,-47,-190,-210xm60,-570v0,-162,102,-209,189,-209v89,0,190,46,190,211v0,162,-102,208,-189,208v-87,0,-190,-47,-190,-210xm751,-814r86,0r-580,861r-86,0xm249,-723v-53,0,-114,34,-114,153v0,120,62,154,115,154v53,0,114,-33,114,-152v0,-122,-61,-155,-115,-155xm761,-357v-53,0,-115,34,-115,156v0,118,61,152,114,152v53,0,114,-34,114,-152v0,-120,-60,-155,-113,-156", "w": 1009 }, "=": { "d": "616,-395r0,67r-551,0r0,-67r551,0xm616,-235r0,67r-551,0r0,-67r551,0", "w": 681 }, "[": { "d": "289,-770r0,60r-120,0r0,910r120,0r0,60r-204,0r0,-1030r204,0", "w": 359 }, "#": { "d": "95,-488r17,-72r171,0r52,-210r74,0r-52,210r176,0r52,-210r74,0r-52,210r178,0r-17,72r-179,0r-43,177r184,0r-17,72r-185,0r-58,239r-74,0r58,-239r-176,0r-58,239r-74,0r58,-239r-164,0r17,-72r165,0r43,-177r-170,0xm339,-488r-43,177r176,0r43,-177r-176,0", "w": 825 }, "<": { "d": "75,-244r0,-72r555,-251r0,72r-476,215r476,215r0,72", "w": 700 }, ">": { "d": "625,-316r0,72r-555,251r0,-72r475,-215r-475,-215r0,-72", "w": 700 }, "*": { "d": "49,-567r25,-65r202,81r-2,-219r70,0r-2,219r202,-81r25,65r-207,81r144,160r-58,49r-139,-172r-138,172r-60,-49r144,-160", "w": 618 }, "\u2014": { "d": "721,-308r0,65r-681,0r0,-65r681,0", "w": 761 }, "a": { "d": "392,-404v0,-21,-15,-89,-62,-89v-85,0,-141,29,-168,52v-13,12,-9,28,0,36r-80,15v-18,-30,-10,-85,39,-113v36,-20,110,-60,221,-59v106,0,131,106,131,158r0,271v0,4,2,62,56,95r-54,50v-48,-19,-68,-62,-77,-97v-48,51,-114,97,-188,97v-22,0,-150,-11,-150,-150v0,-83,24,-155,193,-180v73,-10,115,-17,139,-23r0,-63xm207,-58v75,0,145,-60,185,-110r0,-101v-30,6,-72,13,-130,21v-109,15,-119,58,-119,110v0,69,54,80,64,80", "w": 564, "k": { "s": 10, "e": 15, "d": 15} }, "\u00a0": { "w": 260}} });
